svm_type c_svc
kernel_type rbf
gamma 0.333333
nr_class 2
total_sv 4
rho -0.0921605
label 1 -1
nr_sv 2 2
SV
1 0:0.12855942 1:0.25638647 2:0.33993381 3:0.98425427 
1 0:0.12597597 1:0.25524742 2:0.33245911 3:0.9822564 
-1 0:0.90771245 1:0.80311549 2:0.7048097 3:0.106831 
-1 0:0.9054331 1:0.80672271 2:0.70459738 3:0.1073309 
